FANN_FLO_2.1
num_layers=4
learning_rate=0.500000
connection_rate=1.000000
network_type=0
learning_momentum=0.000000
training_algorithm=2
train_error_function=1
train_stop_function=0
cascade_output_change_fraction=0.010000
quickprop_decay=-0.000100
quickprop_mu=1.750000
rprop_increase_factor=1.200000
rprop_decrease_factor=0.500000
rprop_delta_min=0.000000
rprop_delta_max=50.000000
rprop_delta_zero=0.100000
cascade_output_stagnation_epochs=12
cascade_candidate_change_fraction=0.010000
cascade_candidate_stagnation_epochs=12
cascade_max_out_epochs=150
cascade_min_out_epochs=50
cascade_max_cand_epochs=150
cascade_min_cand_epochs=50
cascade_num_candidate_groups=2
bit_fail_limit=3.49999999999999977796e-01
cascade_candidate_limit=1.00000000000000000000e+03
cascade_weight_multiplier=4.00000000000000022204e-01
cascade_activation_functions_count=10
cascade_activation_functions=3 5 7 8 10 11 14 15 16 17 
cascade_activation_steepnesses_count=4
cascade_activation_steepnesses=2.50000000000000000000e-01 5.00000000000000000000e-01 7.50000000000000000000e-01 1.00000000000000000000e+00 
layer_sizes=27 19 13 5 
scale_included=0
neurons (num_inputs, activation_function, activation_steepness)=(0, 0, 0.00000000000000000000e+00) (0, 0, 0.00000000000000000000e+00) (0, 0, 0.00000000000000000000e+00) (0, 0, 0.00000000000000000000e+00) (0, 0, 0.00000000000000000000e+00) (0, 0, 0.00000000000000000000e+00) (0, 0, 0.00000000000000000000e+00) (0, 0, 0.00000000000000000000e+00) (0, 0, 0.00000000000000000000e+00) (0, 0, 0.00000000000000000000e+00) (0, 0, 0.00000000000000000000e+00) (0, 0, 0.00000000000000000000e+00) (0, 0, 0.00000000000000000000e+00) (0, 0, 0.00000000000000000000e+00) (0, 0, 0.00000000000000000000e+00) (0, 0, 0.00000000000000000000e+00) (0, 0, 0.00000000000000000000e+00) (0, 0, 0.00000000000000000000e+00) (0, 0, 0.00000000000000000000e+00) (0, 0, 0.00000000000000000000e+00) (0, 0, 0.00000000000000000000e+00) (0, 0, 0.00000000000000000000e+00) (0, 0, 0.00000000000000000000e+00) (0, 0, 0.00000000000000000000e+00) (0, 0, 0.00000000000000000000e+00) (0, 0, 0.00000000000000000000e+00) (0, 0, 0.00000000000000000000e+00) (27, 3, 5.00000000000000000000e-01) (27, 3, 5.00000000000000000000e-01) (27, 3, 5.00000000000000000000e-01) (27, 3, 5.00000000000000000000e-01) (27, 3, 5.00000000000000000000e-01) (27, 3, 5.00000000000000000000e-01) (27, 3, 5.00000000000000000000e-01) (27, 3, 5.00000000000000000000e-01) (27, 3, 5.00000000000000000000e-01) (27, 3, 5.00000000000000000000e-01) (27, 3, 5.00000000000000000000e-01) (27, 3, 5.00000000000000000000e-01) (27, 3, 5.00000000000000000000e-01) (27, 3, 5.00000000000000000000e-01) (27, 3, 5.00000000000000000000e-01) (27, 3, 5.00000000000000000000e-01) (27, 3, 5.00000000000000000000e-01) (27, 3, 5.00000000000000000000e-01) (0, 3, 0.00000000000000000000e+00) (19, 3, 5.00000000000000000000e-01) (19, 3, 5.00000000000000000000e-01) (19, 3, 5.00000000000000000000e-01) (19, 3, 5.00000000000000000000e-01) (19, 3, 5.00000000000000000000e-01) (19, 3, 5.00000000000000000000e-01) (19, 3, 5.00000000000000000000e-01) (19, 3, 5.00000000000000000000e-01) (19, 3, 5.00000000000000000000e-01) (19, 3, 5.00000000000000000000e-01) (19, 3, 5.00000000000000000000e-01) (19, 3, 5.00000000000000000000e-01) (0, 3, 0.00000000000000000000e+00) (13, 3, 5.00000000000000000000e-01) (13, 3, 5.00000000000000000000e-01) (13, 3, 5.00000000000000000000e-01) (13, 3, 5.00000000000000000000e-01) (0, 3, 0.00000000000000000000e+00) 
connections (connected_to_neuron, weight)=(0, 5.68157861977812395082e+00) (1, -9.87844665854852199693e-01) (2, 4.01224307250288902971e-01) (3, -2.29369763881179800080e+01) (4, -2.55254749766499589025e-01) (5, 1.07009708064976161168e+00) (6, 7.36154860960192697350e-02) (7, -8.47262800608778690048e+01) (8, 3.26556861779602802809e-01) (9, -1.58228857211536979577e+01) (10, -4.41356842803560525113e+01) (11, 6.92193609396290376878e-01) (12, 2.99091645142901896293e+00) (13, -2.17102939110538240008e-01) (14, 9.75476780960332945369e+00) (15, 2.31765506908338139169e+01) (16, 4.59506081561736863250e+01) (17, -1.56340305319935923833e-01) (18, 1.23231526795925283579e+00) (19, -1.02505411925697931252e+00) (20, 4.39384219001456091669e-02) (21, 4.21632913943713716343e-01) (22, -3.78953699174438014552e+01) (23, 1.51097234347553666112e+02) (24, 1.05557759099879833187e+00) (25, -1.78143580932828911045e+01) (26, 1.83877318136261264092e-01) (0, 2.04641773435140130744e+01) (1, -3.16288004158329083548e-01) (2, -3.52648627759115984581e-01) (3, -1.43269932573236213891e+00) (4, -4.83674682254326615549e+00) (5, -1.62144906507568649090e+01) (6, -4.04046512182398309676e+00) (7, -1.49532960685754723329e+01) (8, -2.34726587553906851369e-01) (9, -1.98879322686953443622e+01) (10, -1.79427598584257275149e+01) (11, -3.67035043382428582959e+00) (12, -6.61408746439523653748e+00) (13, -4.08737617073845094229e-01) (14, 8.09264662660669564787e+00) (15, -7.08730630674742734243e-01) (16, -1.70748043291578319725e+01) (17, -1.07967150800273570255e+00) (18, -8.39106978684751259046e-01) (19, -2.26336452721027958646e+00) (20, -1.11290907703683505936e+00) (21, -8.42372304972340502083e-01) (22, -1.48401931482220597047e+01) (23, -8.15502505942868367583e+01) (24, 1.70164484793282724695e+02) (25, -8.82318031225782277716e+01) (26, -4.95438766843601219314e-01) (0, 2.28125265574066595775e+01) (1, 6.34265207712119472028e-01) (2, 2.45644454389959160379e-01) (3, -2.52166778516713119274e+00) (4, -1.21374530784839751441e+00) (5, -4.44964959013607241900e+00) (6, -2.04164582352967149959e+00) (7, -9.16979506924609211183e+00) (8, -9.86563516025058956371e-02) (9, -1.51160939863320074039e+01) (10, -9.15808296516398456788e+00) (11, 6.95508679276781283107e-01) (12, 9.45698984183601765174e-01) (13, -1.99240003991117253790e+00) (14, 2.28435925280659155590e+01) (15, 3.18662494831292093522e+01) (16, -3.84416362373630633442e+01) (17, -1.03489093562845790863e+00) (18, 4.69505482850842870146e-01) (19, -4.83609281896900800035e+00) (20, -9.79338623350924919464e-01) (21, -3.51575930396006075540e+00) (22, -9.20500192358950641847e+00) (23, -2.95735075674965401049e+02) (24, 1.08153425529631324054e+01) (25, -5.48282410315890501806e+02) (26, 1.51570720035610201348e-01) (0, 2.95492589633023392537e+01) (1, -8.27701874105229995493e-02) (2, -4.03061076478520644018e-02) (3, -2.12399772592259417081e+00) (4, -5.41668157006446548962e+00) (5, -3.80103136652761293135e+01) (6, -5.37749455480502014382e+00) (7, -9.15906839385489490724e+00) (8, -1.79642628683188088079e-01) (9, -1.64345442725249455407e+01) (10, 1.79320900926993012092e+01) (11, 5.06386156005090071197e-01) (12, -4.16843592944167951053e-01) (13, -3.47964072304125016100e-01) (14, 2.96537293317770611623e+01) (15, 2.52137386498742088747e+00) (16, -6.29804120237760045597e+01) (17, -7.82217440695147536722e-01) (18, -4.84249171023642011047e-01) (19, -1.86787235957529311747e+01) (20, -8.03863066940751913592e+00) (21, -1.51056819699818589697e+01) (22, 2.30377160075622988700e+00) (23, -1.95195077245718920267e+02) (24, 1.06452283639882665511e+02) (25, -2.57485046693388994754e+02) (26, -2.83803168288822960097e-01) (0, 2.08766617544986701205e+01) (1, 2.15798001347274975847e-01) (2, 1.61532337044906187939e-01) (3, 3.87513487055815009086e-02) (4, -4.22112449824039526192e+00) (5, -2.97922056401197288267e+00) (6, -1.90834791962785477182e+00) (7, -4.34099884426350435263e+00) (8, -2.69886947023172507620e-01) (9, -1.15913895709651573185e+01) (10, -2.67112607396868533272e+01) (11, -1.89923583772699522410e-01) (12, -1.98631109071649873954e+01) (13, -7.02281490359447535532e-01) (14, 3.37119541653298284700e+01) (15, 4.15967531334158024947e+01) (16, -2.34472537104212541692e+01) (17, -2.63238744070180441526e+00) (18, 7.55472426402710450777e-02) (19, -6.05931551182039473957e+00) (20, -2.46359149064058779999e+00) (21, -5.11499822963903927331e+00) (22, -1.73291226905981581297e+01) (23, -5.22908254954779295076e+02) (24, 1.00849638678438481065e+02) (25, -5.37159666312043896141e+02) (26, 9.83123932040432246815e-02) (0, -4.09722937218844691643e+01) (1, 7.63609429322656074746e-01) (2, 9.09254962016058154717e-01) (3, -5.03734906647503777322e+00) (4, 1.08433213326408584010e+00) (5, 8.38963059662619059509e+01) (6, 2.00928685276454729092e+02) (7, -9.49959038942687783447e+00) (8, 2.28138030929332735752e+00) (9, 2.78264478238563262025e+00) (10, 1.90680112429344390534e+01) (11, 4.44838612918993125955e-01) (12, 4.59429305761318351742e-01) (13, 2.56483201065368682237e+00) (14, -5.69968693738553611183e+00) (15, -2.02685220768535145908e+01) (16, -3.51363853665918952629e+01) (17, 2.52851627933367106849e+00) (18, 4.99724750197458988943e-01) (19, 2.71702402121942299118e+00) (20, 2.56222737001760814124e+00) (21, 1.94444832320633276268e+00) (22, 1.29151191662479448041e+02) (23, 9.66205554650315434628e-01) (24, -3.37748701246182108093e+01) (25, -5.12004960886238364992e+01) (26, 1.76085413757207209784e+00) (0, -5.88656032947783280918e+00) (1, 3.37970378393925352523e-01) (2, 4.53250624032221327564e-01) (3, -1.58572638466007891367e+01) (4, 2.11223239196139778162e-01) (5, 6.44083536584175497808e-01) (6, 3.17206028170956333412e+00) (7, 1.85969122421562449432e+00) (8, 4.12792381554383858155e-01) (9, -6.40844220835752764742e+00) (10, -2.63287667986289175559e+00) (11, 5.44766558017434010530e-01) (12, 3.80420640520160446840e-01) (13, 3.49720531863318806476e-01) (14, 8.66481123514737561209e+00) (15, 6.17580129995456150738e+00) (16, -2.39702112837139651447e+01) (17, 4.31838860430130644374e-01) (18, 2.68983555798472384613e-01) (19, 3.96886535549615615537e-01) (20, 2.98561563481802128006e-01) (21, 1.99663874658425943842e-01) (22, 1.30208106788263222597e-02) (23, 1.68026116141260104087e+02) (24, 1.89245845804373402643e+01) (25, -6.74296158772347553167e+02) (26, 3.52850512939981930671e-01) (0, -1.34886977044777722767e+00) (1, 1.74064804792851912651e+00) (2, 1.10634733270692375839e+00) (3, -6.56726335348211254228e+00) (4, 8.26665697128691423501e-01) (5, 4.30380909655763677080e+00) (6, 9.32305902030891431309e+00) (7, 2.26640718778049432558e+00) (8, 1.72801431348590428527e+00) (9, 1.37753548720737040156e+00) (10, 8.23157653994553051291e+00) (11, 1.18230135527940771745e+00) (12, 1.61610632083311145379e+00) (13, 2.74267416484436488133e+00) (14, -1.52074717096330247479e-01) (15, -1.52540141663715345111e+00) (16, -1.07401889630305369394e+00) (17, 7.58589715184742274801e-01) (18, 1.29625312773080803019e+00) (19, 1.30536057734415500420e+00) (20, 8.66299898804344992165e-01) (21, 1.41429462477464218395e+00) (22, 1.46933947991492139806e+01) (23, 9.56185404441570874212e+00) (24, -1.87334257650523738903e+00) (25, -9.86990240187056500076e-01) (26, 5.52559825093049017397e-01) (0, 2.00519881321501252103e+01) (1, -4.11028784429448568183e-01) (2, 2.68561654859414078445e-01) (3, 2.74226270060449461852e+00) (4, -1.27992283418798158401e+00) (5, -1.00883431793778122199e+01) (6, -6.57399194990791073678e+01) (7, -3.09921343934229618355e+01) (8, -2.27681953857649288508e+00) (9, -3.26734060303223756705e+01) (10, -1.21071981459653315483e+02) (11, 1.42049285893676646708e+00) (12, 3.70683345221703985928e-01) (13, -7.73259585742394950358e-01) (14, 1.05403233232999742341e+01) (15, 4.05968491524782635338e+01) (16, 1.68379958414592714178e+01) (17, -2.35616118113506711751e+00) (18, 6.01511469563564271645e-01) (19, -6.04036420133694207379e+00) (20, -2.30034653495062313411e+00) (21, 1.26424948283032589913e+00) (22, -9.47398511963001226377e+01) (23, -3.10327290563449196270e+02) (24, 5.98361068080966695959e+00) (25, 1.81902360048003345128e+02) (26, 1.20155534908187741627e-01) (0, 1.32569735324483097827e+01) (1, -2.94914464706384382708e+00) (2, 3.91853893308759526626e-01) (3, 7.58864825880646187706e-01) (4, 6.93228924271294955073e-02) (5, -6.85121708655798045129e+01) (6, -1.86330591203819324164e+02) (7, 2.71373779441141600444e+01) (8, -3.00154622096461043412e+00) (9, 5.89296965432469344037e-01) (10, 2.00287036709228431164e+02) (11, 2.10818000511143699427e+00) (12, 4.09246978488907853233e+00) (13, -2.47881032998250372401e+00) (14, 5.46828614060164053257e+00) (15, 1.30000869728440111572e+01) (16, 3.65324111861517124566e+01) (17, 9.59719818897440332672e-03) (18, 3.74147589116549827981e-01) (19, -2.90767169622638110837e+00) (20, 1.23660790509096271683e-01) (21, 4.68380558467673624445e-01) (22, -1.62429210943608666184e+02) (23, -3.70699841233093607684e+01) (24, 8.30699917683251065625e+00) (25, 1.50820849724711063544e+01) (26, 3.17313920815415539955e-01) (0, 2.56152476516109750548e+01) (1, -1.72445596576061482841e-01) (2, 3.41818935105252019735e-01) (3, -9.26018834116083588981e+00) (4, 6.47128521058265224197e-03) (5, 9.66578319010198833139e-02) (6, -4.33009395469620805841e-01) (7, -1.78784396958736486738e+01) (8, 3.19576217217382774205e-01) (9, -1.34610952155103476002e+01) (10, -2.62160641750377827464e+01) (11, 1.06789011047784754282e+00) (12, 2.88541576168047342321e+00) (13, -6.24015066414228269931e-02) (14, 2.54986537356418416778e+01) (15, 3.63486866611072372280e+01) (16, 4.81575080157164023831e+01) (17, -4.09524537650088268914e-02) (18, 4.58826188607056872915e-01) (19, -9.26278529494758862128e-01) (20, -1.31420197340581801360e-01) (21, 3.01833033158360297676e-01) (22, -1.31455178291740253371e+01) (23, -3.04879199598418040296e+02) (24, 3.94359971854695174898e+01) (25, -9.14828106223945383135e+02) (26, 3.31179241453102513049e-01) (0, 1.51699782187730942695e+01) (1, -6.83814407576979754744e-01) (2, -1.22895255468780786878e-01) (3, 1.12148313931284815403e+00) (4, -2.41507430356986685371e-01) (5, -1.85827573853289784722e+00) (6, -6.19376462319550853408e+01) (7, -3.91095390430532034998e+01) (8, -7.08254226508663764506e-01) (9, -6.12118755163445626977e+00) (10, 8.19567645219358809072e+01) (11, 1.55358482677854770060e+00) (12, 3.09505222904065391276e+00) (13, -7.67348739320708794764e-01) (14, 4.25606046335667187464e+00) (15, 1.03915449046599590588e+01) (16, 3.45930496732265595483e+01) (17, -2.88214638087462948768e-01) (18, 1.59596758488930934305e+00) (19, -6.88981907463552367687e-01) (20, -1.61068094852772125680e-01) (21, 1.27215423916458347797e+00) (22, -3.20628804189239417610e+02) (23, -4.93714951548002929371e+01) (24, 5.31626833414312045534e+01) (25, 5.51328410070953367494e+01) (26, -2.39760033847446429878e-01) (0, -2.93317858773788771032e+01) (1, 1.70376064879531141649e+00) (2, 1.01241714161812312867e+00) (3, -3.34880819706592447460e+00) (4, 3.47252446517429902428e+00) (5, 1.14675712968498430655e+02) (6, 2.01618160494192046883e+01) (7, -5.91118067073216235663e-01) (8, 1.46617571503370958119e+00) (9, 2.97983554406721351526e+00) (10, 3.00116021171748514895e-01) (11, 4.05182941547534203330e-01) (12, 4.86610566186586768200e-01) (13, 1.82158867469076901635e+00) (14, -1.19591542964852344255e+01) (15, -8.97902006507765193533e+00) (16, -8.02776175931279567521e+00) (17, 1.12196195388544839311e+00) (18, 3.76941514470602812015e-01) (19, 2.60284532573845162062e+00) (20, 9.01807651795277465112e+00) (21, 3.86401943079383647373e+00) (22, 4.51885488889120789935e+00) (23, 6.74502597551782656637e+00) (24, -7.90916334830160216995e+00) (25, -1.97551956693689518829e+01) (26, 1.36674123156685989322e+00) (0, -2.08561580351968380853e+01) (1, 5.75730943486371682383e+00) (2, 1.15304300401139103727e+00) (3, -3.46792411025733082752e+00) (4, 1.32904265187210346433e+00) (5, 3.71530731540256109469e+00) (6, 3.98315369625337822868e+01) (7, 7.94248685388924879902e+00) (8, 1.66773599141092332410e+00) (9, 2.14317153903033874585e+00) (10, 1.06496359177199444446e+01) (11, -6.63458573569197684883e-01) (12, 7.64740108095858461823e-01) (13, 3.22294529508709537424e+00) (14, -4.75474464913691186041e+00) (15, -1.27257542254203102061e+01) (16, -4.96627331658147141979e+01) (17, 3.36507119066452720091e+00) (18, 1.04945723179507099942e+00) (19, 5.55911930485179617278e+00) (20, 1.83892282192038458710e+00) (21, 7.36414656379017262822e-01) (22, 2.23885886874308894789e+01) (23, 6.60771070781633511615e+01) (24, -8.08765713736089395525e+01) (25, 9.71953059547642794769e+00) (26, 7.64570036047112933097e-01) (0, -2.02476579652816361943e+01) (1, 1.83143619204457697158e+00) (2, 4.30680304437343730584e-01) (3, -3.20746822133257225573e-01) (4, 3.39111506575991983325e+00) (5, 1.95554256291302763771e+01) (6, 1.68794548049376724741e+00) (7, 3.90127517571152404585e+00) (8, 1.97334437150985264608e+00) (9, 1.16801885598841952429e+01) (10, 3.29740574807669117874e+00) (11, 4.49807504491445020456e-01) (12, 4.30365174128988225988e-01) (13, 2.27281630305370407896e+00) (14, -2.03339251758247918644e+01) (15, -6.57492966920681354281e+00) (16, -1.09766343803199806217e+00) (17, 2.70974767012172046421e+00) (18, 5.99794577959709251935e-01) (19, 5.28018203286208187563e+00) (20, 4.03386242832030017524e+00) (21, 2.50745218349402110292e+00) (22, 3.17034190751543576425e+00) (23, 7.53029294919845568757e+01) (24, -4.01222624163115213491e+01) (25, 6.09632400590118539441e+00) (26, 9.92926242611472109623e-01) (0, 1.97113757197838035395e+00) (1, 2.69486878431361853714e+00) (2, 4.93234307305526475940e-01) (3, 5.10803592982015075563e+00) (4, 2.60454231008817593818e+00) (5, 2.78997036901183426139e+00) (6, 7.22894884696259598655e+00) (7, 1.04644907851905966112e+01) (8, 1.46041584329489126937e+00) (9, 9.86008417900945621781e-01) (10, 1.21460761705238660113e+01) (11, 2.04848127628940623879e+00) (12, 2.68246265703219055609e+00) (13, 5.77802554166423387727e+00) (14, 1.90523837869148460200e+00) (15, 2.21459311228455701936e+00) (16, 1.77125531130813342884e+01) (17, 2.59586553528835217719e+00) (18, 1.28750604198061280314e+00) (19, 5.13664889590660234120e+00) (20, 1.26966504306706728933e+00) (21, 4.44895688082728124613e+00) (22, 5.67568749013564257666e+01) (23, 1.00415647096779650838e+02) (24, 2.06233882828300130186e+00) (25, 9.76857977544149047588e-01) (26, 6.98289999200928046541e-01) (0, 2.12057514297597116126e+01) (1, 1.33808738222186951461e+00) (2, 3.75755611564326519325e-01) (3, -1.63786444636784551676e+01) (4, -5.88139838527958813685e-01) (5, -4.67590233825467105344e-01) (6, -4.02043712107529138677e+00) (7, -1.12016688627108464971e+01) (8, 4.28286641793102440534e-01) (9, -1.45983169542885864445e+01) (10, -1.86567158276076803247e+01) (11, 5.82216682320036760245e-01) (12, 3.57776488602637332548e+00) (13, 8.05477617452962202371e-01) (14, 8.92126347127380903146e+00) (15, 6.76000331069551805285e+01) (16, 1.35706455836708300922e+02) (17, -5.10409253476048707654e-01) (18, 9.27938840719392254996e-01) (19, -3.58742674897643620824e+00) (20, -4.02611819497049716610e-01) (21, -1.56306491040476314147e+00) (22, -7.33217268325478777058e+00) (23, 1.31652188928507882792e+01) (24, 1.63166466237007092843e+01) (25, -5.29507290059619435851e+02) (26, 2.89319313167768599193e-01) (0, -4.10128925480918553603e+01) (1, 2.31977383320098340391e+00) (2, 6.86399585630647179890e-01) (3, 1.14387099614131487746e-01) (4, 3.63681076249845114390e+00) (5, 3.75314474538326834363e+01) (6, 4.25497733396328285949e+01) (7, 1.30064256794369548231e+00) (8, 2.61590093402335455153e+00) (9, 1.31245851016863035454e+00) (10, 6.33566602384266430725e-01) (11, 7.38497464275444936987e-02) (12, -2.33731896734371308311e-01) (13, 4.58093522563627875144e+00) (14, -3.04165049354137950743e+00) (15, -1.14820440188334025322e+01) (16, -2.57540808220020558394e+01) (17, 8.60919476421133822441e+00) (18, 1.59261469261158028488e-01) (19, 6.73263968359512965378e+00) (20, 6.59971592695268682860e+00) (21, 3.53320139004577482567e-01) (22, 6.82954991711420489331e-01) (23, 2.17886899823899238271e+00) (24, -8.63362029160357877799e+01) (25, -8.13204103456490123847e+00) (26, 1.62089220938753797441e+00) (27, 1.37661183957243693499e-01) (28, -6.22081517758190094547e-01) (29, -7.61353797795593312259e-01) (30, -2.84907630342267237378e-01) (31, -1.64382336366216130763e+00) (32, 3.62310269632744130774e+00) (33, 3.68762157090508219115e-02) (34, -9.96960341001541072714e-01) (35, -1.91483098607131907443e+01) (36, -2.04177967675434004491e+01) (37, -5.14914638976827557237e-02) (38, -2.04407015137778174108e+01) (39, 3.48861880037953131506e+00) (40, 4.09639136330792563712e+00) (41, 2.42449640390162501902e+00) (42, -4.85535887768156482203e-01) (43, -7.35383886428892075138e-01) (44, 5.91594640433625240661e+00) (45, -9.82505499387771541464e-01) (27, 6.69393195185831757499e+00) (28, 1.29450680357048431013e-01) (29, -1.64462789901978689855e+00) (30, -3.07748826887025650478e-01) (31, -8.09174989297034685798e-01) (32, 5.82000331620162070223e-01) (33, -1.70987544148916259523e-01) (34, 1.96818153638657045157e+00) (35, 1.70244162698875611817e+00) (36, 1.52091611769334988935e+01) (37, 3.30586614821359703331e-01) (38, 1.51748791008442225348e+01) (39, 1.15150790785892231938e+00) (40, 7.56925921048488770104e-01) (41, 9.16342465313476139954e+00) (42, 1.91815762300308678689e+00) (43, -7.81427965885560738002e-01) (44, 4.04904731330738965056e+00) (45, 1.94380608279522415494e+00) (27, 1.57557409829198968865e-01) (28, 9.24542481685245221001e-01) (29, 9.39429811767957034796e-01) (30, 8.77673173928821492851e-01) (31, 1.14778643877832942088e+00) (32, -4.94859911299743049362e-01) (33, 1.32865632947059081337e-01) (34, -4.32474510752051677365e-01) (35, 2.43969137678388969803e+00) (36, 9.36394637877476654353e+00) (37, 5.25598364631328140995e-01) (38, 1.53535102473670228562e+01) (39, -4.77912954784430854538e-01) (40, -4.70439113474883430221e-01) (41, -1.03052155137741774382e+00) (42, -6.43014125805391884017e-02) (43, 1.08187221021978929869e+00) (44, -5.15529893137015693405e-01) (45, -3.71267432354777660031e-01) (27, 1.78587156600276297791e-01) (28, -1.78383469844717285069e-01) (29, -3.12315851413873690756e-01) (30, -3.91227926525517188949e-01) (31, -1.39531395029720228784e+00) (32, 1.76928883260624147944e+00) (33, -1.20929415231347925364e-01) (34, 7.35147453500638592416e-02) (35, -3.74172590853056696858e+00) (36, -3.74342025996527461018e+00) (37, -1.26141129624542180920e+00) (38, -3.71114868105730799641e+00) (39, 7.61033570231923639504e-01) (40, 5.46258716804469823813e+00) (41, 1.70329698389904238276e+00) (42, -9.30908434404303652965e-02) (43, -2.54892424360368463621e-01) (44, 1.70721215516174353866e+01) (45, 2.94415615187713329559e-02) (27, -2.82819949646288482104e-01) (28, -1.05690401824156995914e-01) (29, -3.30783815559513882931e+00) (30, -6.28954757156646415694e+00) (31, -1.51149847026350059309e+01) (32, 2.56345351408750143918e+00) (33, -2.87200940511871394278e-02) (34, 4.72318720340632158816e-01) (35, -5.07286990272031612648e+00) (36, 1.20495141959024154588e+00) (37, -1.50954363386513747969e+01) (38, 9.03198153585290208767e-01) (39, 4.73786545679294179845e-01) (40, 6.46509597456209306188e+00) (41, 2.65336131487027593323e+00) (42, 4.52288449196515340844e-01) (43, -3.38637763139374570187e+00) (44, 2.67596977386609502503e+00) (45, 4.65615425024805740239e-01) (27, 1.27714139043720420474e+00) (28, 1.77871495340879010039e-02) (29, 1.72224147603374344584e-01) (30, -4.46251983108300540048e-02) (31, -4.38033587617380426593e-01) (32, 4.88030804605638190985e-01) (33, 3.03728535186834069926e-01) (34, 4.96564628619344083926e-01) (35, 2.15301449329834992952e+00) (36, 9.68599749075914284724e-01) (37, -8.33922991999755947035e-02) (38, 9.35394143032575398067e-01) (39, 6.79209359207731622199e-01) (40, 2.31414303818192657047e+00) (41, 2.11496488165739604526e+00) (42, 6.16098308742813016714e-01) (43, 5.73490409598893802201e-03) (44, 2.20354950992051978886e+00) (45, 4.75377952742965237398e-01) (27, 6.60052984366473616262e+00) (28, 3.29663227553571691608e-01) (29, -2.02847040939583056485e-01) (30, -7.22615659390903226911e-03) (31, 1.71832268494515716384e-01) (32, 6.12541642677445263843e-01) (33, -1.28466111063399646142e+00) (34, 4.01791525481530431563e+00) (35, 2.13367774379379815386e+00) (36, 1.56174235348671359702e+01) (37, -2.68817829323380053097e-01) (38, 1.56138358103187151471e+01) (39, 1.29083555496015467412e+00) (40, 8.07829820354374783520e-01) (41, 4.14624138586226109737e+00) (42, 4.11478315888234380537e+00) (43, -3.43218350488333623360e+00) (44, 8.47266344775278734680e-01) (45, 3.94002492575236606953e+00) (27, 1.54944466069139288322e+01) (28, 2.97578791273668219475e+00) (29, 1.80306595074691666802e+00) (30, 2.80802682531907965569e+00) (31, 2.18807636167397490112e+00) (32, -1.84629770707283658027e+00) (33, 4.65428941281951502607e-01) (34, 1.90390959013877791861e+00) (35, 3.83325348025577952171e+01) (36, 2.05270394556960468435e+02) (37, -7.42914260624413458345e-01) (38, 2.05220110245785122061e+02) (39, 5.31464156414055755029e-01) (40, 2.24974731736855515507e+00) (41, 1.25112874571029886184e+00) (42, 1.29732834790332418606e+00) (43, 1.71137263965531549736e+00) (44, -9.68828032380309039917e-02) (45, 2.01664708559094352225e+00) (27, 9.68428973265101578072e-01) (28, -8.50016686005105714941e-01) (29, -9.52608673965320451593e-01) (30, -9.50889773990085895861e-01) (31, -6.01269008139860838824e-01) (32, -1.43923593208753475281e+00) (33, -3.06516097804194931342e+00) (34, -4.79150408698011232023e-01) (35, 1.58816643782637321181e+01) (36, 2.04798531572720406757e+02) (37, -5.88325069765341490680e-01) (38, 2.04808640371462701069e+02) (39, -9.63609028495905239886e-01) (40, -6.94666688633226225846e-01) (41, 1.59857144864944844542e-01) (42, -4.42311214102197425291e-01) (43, -5.40588974042568115586e-01) (44, -1.88519016988155652115e+00) (45, -5.51011847151208988826e-01) (27, -6.92708609388779206206e-01) (28, -6.28180290441883570907e+00) (29, -1.50940637010969602727e+01) (30, -1.50583026688434564733e+01) (31, -1.50227319206931078099e+01) (32, 8.01078112749549320348e-01) (33, -6.23054132236978475134e-01) (34, -2.33662031771488448717e-01) (35, -3.55379426925986905417e+01) (36, -2.82860096503909819177e+00) (37, -1.50882381740846120977e+01) (38, -2.82066618611034147790e+00) (39, 1.56118515244766858929e-01) (40, 8.07494897345842232994e+00) (41, 2.68353000733258983956e+00) (42, -2.36763479369414775455e-01) (43, -1.50337549131252252721e+01) (44, 6.69154466018810545336e+00) (45, -1.22983005670236164586e-01) (27, 4.72100604241584148602e-03) (28, 8.88018791909039872934e-01) (29, 9.42744986576270260770e-01) (30, 9.79511664671133930327e-01) (31, 2.06760873339790229863e+00) (32, -4.75749447419818172200e-01) (33, 8.38249897042384201074e-02) (34, -4.93071205392058620198e-01) (35, 2.22249897191413348096e+00) (36, 2.96412439568720778027e+01) (37, 1.19051161697955376617e+00) (38, 4.26096603125163539971e+01) (39, -5.12194760998428533227e-01) (40, -7.98741976623460137041e-01) (41, -5.01023531814754674585e-01) (42, -9.40894052189189256108e-02) (43, 9.03833100063037075955e-01) (44, -8.78328065280839065387e-01) (45, -2.70184894644051709633e-01) (27, -6.13029811426069482644e-03) (28, -1.31468744138726689741e+00) (29, -2.40900687024537096814e-01) (30, -6.89937250610712093923e-01) (31, -1.12239687786046066220e-01) (32, 1.57548617904433663206e+00) (33, 9.35319556296907925197e-03) (34, -5.55188135184183778614e-02) (35, -3.41125068843240730754e-01) (36, -3.62440835696282881440e-01) (37, 1.81992518713925584273e-02) (38, -2.99861396680796643555e-01) (39, 1.40877752813538470456e+00) (40, -5.72050662399218201593e-01) (41, -2.56420500411257135109e-02) (42, -9.06826491718724647662e-02) (43, -1.15100129589978270039e-01) (44, 5.30975175818457878485e-01) (45, 3.48972826324567275691e-02) (46, -1.19370162951422962294e+01) (47, -3.20685566070260719140e-01) (48, -3.86495247976058498018e-01) (49, 5.74572441535191380524e+00) (50, -1.28123906081157623582e+00) (51, -1.87250451380731708362e-01) (52, -3.69985513987722225426e-01) (53, -4.10045184793653261224e-01) (54, -6.05547567109280260311e-01) (55, -1.24960207765537201219e+00) (56, -7.45879025409632245847e-01) (57, 4.25858515472988674588e+00) (58, -4.51051273050489254235e-01) (46, 2.54032559238322130923e+00) (47, -1.33115747873977618987e-01) (48, 1.45925842681756318120e-01) (49, -4.25090245261609711580e-01) (50, -1.18100649302507343386e+00) (51, -1.56495106620851309742e-01) (52, -1.78805409470364717883e-01) (53, -2.12798821279570726794e-01) (54, -2.79229259359391601691e+00) (55, -1.06651157639909444086e+00) (56, 9.39461301070407706071e-01) (57, -3.20671707342913225869e-01) (58, -1.27892912023535421095e-01) (46, -8.54098635163186372665e+01) (47, 1.42609670361014517770e-01) (48, 5.39982155461744328662e-01) (49, -6.94536044153850617988e+00) (50, -2.82781312945096185985e+00) (51, -2.23332206547912706651e-02) (52, 1.24106682439776558335e-01) (53, 2.52671457429858414834e-01) (54, 1.40117879597439509709e+00) (55, -1.48698872987380532606e+01) (56, 5.84084599557827655048e-01) (57, -4.55863621313158051684e-01) (58, 2.64382309814425675576e-01) (46, 1.18158749529695095148e+00) (47, -7.43692674975819090211e-02) (48, -2.00323484608048740796e+00) (49, 1.86377590320935104806e+00) (50, 7.24175570863349626904e+00) (51, -4.70260682411657998658e-02) (52, -1.13589716080946312449e-01) (53, -8.42113199539648027425e-02) (54, 6.82870784818265685878e-01) (55, 7.18393117147548565526e+00) (56, -1.04673576890703827758e+01) (57, 5.02111782957847752051e-01) (58, 1.28032728172693427426e-01) 
